{"voxel_size": 0.006640625, "block_size": 30, "grid_width": 512, "grid_height": 512, "grid_depth": 512, "atlas_width": 2048, "atlas_height": 2048, "atlas_depth": 32, "num_slices": 8, "min_x": -1.7, "min_y": -1.7, "min_z": -1.7, "atlas_blocks_x": 64, "atlas_blocks_y": 64, "atlas_blocks_z": 1, "input_height": 800.0, "input_width": 800.0, "input_focal": 1111.1110311937682, "worldspace_T_opengl": [[-1.0, 0.0, 0.0, 0.0], [0.0, 0.0, 1.0, 0.0], [0.0, 1.0, 0.0, 0.0], [0.0, 0.0, 0.0, 1.0]], "ndc": false, "0_weights": [[0.3526613116264343, 0.09703676402568817, -0.27479663491249084, -0.021986335515975952, -0.2575141489505768, -0.1771157830953598, -0.1798521876335144, 0.0490688681602478, -0.05843017250299454, 0.24300576746463776, 0.13701023161411285, -0.11521744728088379, 0.12817633152008057, -0.025904683396220207, 0.2131979912519455, -0.1919458955526352], [-0.1253669261932373, 0.26368069648742676, -0.1985146403312683, 0.044518597424030304, -0.19954904913902283, -0.38237351179122925, -0.07700370252132416, 0.13112367689609528, 0.276424378156662, -0.17775024473667145, -0.008377298712730408, 0.016685063019394875, 0.047046467661857605, 0.08481308072805405, 0.06941788643598557, 0.2949589490890503], [0.3489444851875305, -0.21115191280841827, -0.03854059427976608, 0.4106179177761078, -0.056192994117736816, 0.24308981001377106, 0.3692796230316162, -0.04219789430499077, -0.24086500704288483, 0.3405252993106842, 0.11476828157901764, 0.28625068068504333, -0.27730828523635864, -0.323318213224411, 0.13730408251285553, -0.260678768157959], [0.2968103289604187, -0.13401612639427185, -0.04013517498970032, 0.06904798001050949, -0.2964571714401245, 0.12378872185945511, 0.3155307471752167, 0.2022787481546402, 0.24905908107757568, 0.19623006880283356, -0.19813424348831177, -0.194197416305542, -0.11899963021278381, 0.01899150386452675, -0.20596349239349365, -0.023977575823664665], [-0.061572667211294174, -0.2417994737625122, 0.10052070021629333, 0.3290182948112488, 0.1978767216205597, -0.36253899335861206, 0.26150378584861755, 0.18907205760478973, -0.10053320229053497, 0.20354531705379486, 0.18572115898132324, -0.0769968181848526, -0.244730144739151, -0.23364855349063873, 0.2445891946554184, -0.24408400058746338], [0.11269969493150711, -0.17854945361614227, -0.0010030861012637615, -0.24659310281276703, -0.19846796989440918, 0.004544021096080542, -0.22951878607273102, -0.10695032775402069, 0.21291016042232513, -0.22172044217586517, -0.15069188177585602, 0.16215619444847107, 0.25477495789527893, 0.01692030392587185, -0.1483639031648636, -0.20890337228775024], [-0.1997608095407486, 0.16385407745838165, 0.2542478144168854, 0.23498491942882538, 0.10908012837171555, 0.09553869813680649, -0.16894973814487457, 0.11364784836769104, -0.09650208055973053, -0.2188379168510437, 0.18454457819461823, -0.16807502508163452, -0.021540634334087372, 0.03932620584964752, -0.028793340548872948, 0.16860932111740112], [0.09517469257116318, 0.13404779136180878, 0.1695287674665451, -0.23082461953163147, 0.00847502239048481, 0.26873651146888733, -0.16633515059947968, -0.02294410951435566, -0.16956952214241028, -0.18142233788967133, 0.09478627145290375, 0.24243779480457306, 0.08321697264909744, 0.19004781544208527, -0.15488646924495697, 0.046457815915346146], [-0.27158838510513306, -0.022761385887861252, 0.10707254707813263, 0.33106571435928345, 0.06195666268467903, 0.0582178570330143, 0.019562548026442528, 0.08936327695846558, -0.23648136854171753, 0.21077047288417816, -0.09912774711847305, 0.2598720192909241, 0.06862549483776093, 0.22043533623218536, 0.0094255730509758, -0.037913352251052856], [-0.2147490680217743, -0.18567872047424316, -0.04351156949996948, -0.24170978367328644, 0.1722574532032013, 0.10090427100658417, -0.20889003574848175, 0.05918256938457489, 0.11796433478593826, -0.07801483571529388, -0.086734339594841, 0.1378343254327774, 0.002715467708185315, -0.09991109371185303, 0.20553739368915558, -0.2111853063106537], [-0.27502068877220154, -0.21439149975776672, -0.10535780340433121, -0.17339614033699036, 0.1986418217420578, 0.16977711021900177, -0.10768479108810425, -0.05582967773079872, 0.084151491522789, 0.06123610958456993, -0.26056262850761414, -0.11284541338682175, 0.0180364903062582, -0.10331138223409653, 0.025264812633395195, -0.11559168249368668], [-0.011307738721370697, 0.047809310257434845, -0.18161407113075256, -0.0765460729598999, -0.21852761507034302, -0.24280382692813873, 0.1417987048625946, 0.2640301287174225, -0.20576408505439758, 0.37840116024017334, 0.05197920650243759, 0.36847445368766785, 0.059011347591876984, 0.06808657199144363, 0.20369987189769745, 0.14526991546154022], [-0.23248085379600525, -0.11275546997785568, 0.015127546153962612, 0.10072101652622223, 0.0020024648401886225, 0.027531545609235764, -0.09528553485870361, 0.013114343397319317, -0.0669512078166008, -0.08713600039482117, -0.016154486685991287, 0.11344648152589798, -0.002989124972373247, -0.026225807145237923, 0.14395934343338013, -0.1299142837524414], [-0.1442480832338333, 0.06470811367034912, 0.02984149381518364, 0.24182140827178955, -0.10281098634004593, -0.11292947083711624, -0.03372996672987938, -0.1457800418138504, -0.0394226536154747, -0.010022902861237526, 0.061481233686208725, 0.1446521133184433, -0.015159845352172852, 0.038822583854198456, -0.12296786159276962, 0.04834239184856415], [-0.2593010663986206, -0.10026834160089493, -0.06152665987610817, -0.14200198650360107, 0.0674210712313652, -0.08079710602760315, 0.009774991311132908, 0.2873208820819855, -0.24320733547210693, -0.0917208343744278, 0.02285461127758026, -0.18019747734069824, 0.08920593559741974, 0.04516470804810524, 0.07513992488384247, -0.03311615809798241], [0.196259006857872, 0.25848427414894104, 0.34649667143821716, -0.37733399868011475, -0.2383314073085785, 0.3088044226169586, 0.1674887239933014, -0.1895531266927719, -0.22579500079154968, -0.14589263498783112, 0.1142444908618927, -0.2068585902452469, -0.2003372311592102, 0.309148371219635, -0.4276149868965149, -0.1706840693950653], [-0.3180331587791443, -0.06911910325288773, 0.35701537132263184, -0.25352057814598083, -0.026258978992700577, -0.014205963350832462, 0.19315961003303528, -0.24729469418525696, -0.2570008337497711, -0.3051351308822632, -0.051132988184690475, 0.17325429618358612, -0.3644549548625946, 0.294628769159317, -0.023828329518437386, -0.08101236820220947], [-0.2629251480102539, -0.18606241047382355, -0.20187996327877045, 0.19707760214805603, -0.20223838090896606, 0.18890230357646942, -0.07871772348880768, -0.2151641696691513, -0.2965036630630493, 0.21850530803203583, 0.19798879325389862, -0.1274060159921646, 0.17487241327762604, -0.1460362821817398, -0.08802329748868942, -0.2713911235332489], [0.05158066004514694, 0.10042480379343033, -0.20554359257221222, 0.05840134620666504, 0.21451644599437714, 0.14190968871116638, -0.2264583557844162, -0.10089334845542908, -0.38561105728149414, 0.33966436982154846, -0.16797995567321777, -0.05244847387075424, 0.08040134608745575, -0.22523513436317444, -0.16769449412822723, 0.277045339345932], [-0.2264465093612671, 0.37797269225120544, 0.2913469672203064, -0.314332515001297, 0.23094682395458221, -0.08083843439817429, -0.25256088376045227, 0.09228551387786865, 0.056306127458810806, 0.03428705409169197, -0.23194165527820587, -0.2107516974210739, -0.020836619660258293, -0.3145959675312042, -0.3999598026275635, 0.18847614526748657], [-0.196192666888237, 0.3512628972530365, 0.02514219656586647, -0.06941062211990356, 0.0027342503890395164, -0.31169068813323975, -0.10034631937742233, -0.2804853022098541, -0.1197688952088356, 0.1567113697528839, 0.07945334166288376, 0.18028531968593597, -0.12841054797172546, -0.08152814209461212, 0.3824799954891205, 0.25757020711898804], [0.18387126922607422, -0.19990678131580353, 0.0800660252571106, -0.004353741649538279, 0.19444027543067932, 0.0301652904599905, 0.12184952199459076, 0.21505357325077057, 0.31522616744041443, -0.1553569734096527, 0.05195996165275574, 0.12271803617477417, -0.0169842392206192, -0.09483256191015244, 0.179477721452713, -0.26113149523735046], [-0.26516735553741455, -0.21818134188652039, -0.15937553346157074, 0.3255767822265625, -0.25676852464675903, 0.07449782639741898, -0.23562860488891602, -0.17431305348873138, -0.1467343419790268, -0.020698517560958862, 0.26261717081069946, -0.2243359386920929, 0.038455113768577576, 0.009033016860485077, 0.21336545050144196, -0.13463975489139557], [0.27453264594078064, -0.14910072088241577, -0.11447549611330032, -0.26026490330696106, 0.3031845688819885, -0.04879378527402878, 0.4622369408607483, 0.27029019594192505, 0.03974795714020729, 0.27680686116218567, -0.05778464674949646, -0.32144084572792053, 0.11806023865938187, 0.07509970664978027, -0.21137244999408722, -0.05275703966617584], [0.2435579150915146, 0.06741228699684143, -0.008891402743756771, -0.19233570992946625, 0.02357724867761135, -0.08443966507911682, 0.03974520042538643, -0.13741059601306915, -0.21928615868091583, -0.10018587112426758, 0.02202356420457363, 0.04555400088429451, -0.01585688441991806, 0.04208928346633911, 0.011980202980339527, 0.09521526098251343], [-0.08738786727190018, 0.09533024579286575, 0.028183065354824066, -0.17253422737121582, 0.06438098102807999, -0.012837805785238743, -0.004971066024154425, -0.19352133572101593, 0.015377779491245747, 0.04732281714677811, -0.058143869042396545, -0.1691858321428299, -0.020568570122122765, 0.009958134964108467, -0.2660163938999176, 0.09103123843669891], [-0.15666402876377106, 0.027267256751656532, 0.0033518774434924126, 0.2249956727027893, -0.1482239067554474, -0.05035262927412987, -0.13281865417957306, -0.08399456739425659, -0.027681823819875717, -0.15323981642723083, 0.031153302639722824, 0.015847699716687202, -0.013013072311878204, 0.008257455192506313, 0.036583062261343, 0.05804133042693138], [-0.26477450132369995, -0.09743238240480423, 0.6887120008468628, 0.11827520281076431, -0.3781549334526062, -0.05489913746714592, -0.5574520230293274, -0.23888391256332397, -0.1450679749250412, 0.057617489248514175, 0.43232035636901855, -0.034817274659872055, 0.5605652332305908, 0.5575304627418518, 0.18521657586097717, 0.22966091334819794], [-0.11509626358747482, -0.061116863042116165, 0.42621785402297974, -0.380100816488266, -0.2678338885307312, 0.13684481382369995, -0.035030923783779144, -0.13880762457847595, -0.0781591534614563, 0.12408576160669327, 0.39630717039108276, -0.009699582122266293, 0.13155756890773773, 0.10650938004255295, -0.20003220438957214, 0.3321138620376587], [-0.34059518575668335, -0.18780583143234253, 0.3077792525291443, 0.03895042464137077, -0.1494802087545395, 0.13993225991725922, -0.5035338997840881, 0.08403319120407104, 0.11829234659671783, -0.032210443168878555, 0.050296757370233536, -0.1528143435716629, 0.5907564163208008, 0.41922876238822937, -0.1539265215396881, -0.010293358005583286], [-0.30996471643447876, 0.3027416169643402, -0.6031337380409241, 0.197352334856987, -0.3775162994861603, 0.16026589274406433, -0.09070511162281036, 0.20305736362934113, 0.26163092255592346, -0.2119268774986267, -0.495633065700531, 0.0363495834171772, -0.5232071280479431, -0.7574247121810913, 0.21158647537231445, -0.354642778635025], [-0.3586180806159973, -0.2660239040851593, -0.3441980481147766, -0.13141492009162903, 0.4506802558898926, -0.05591578409075737, 0.03723609074950218, -0.11481718719005585, -0.345194011926651, -0.0552150197327137, -0.16141556203365326, -0.08496421575546265, -0.364000529050827, 0.10019571334123611, 0.1666463315486908, 0.44761157035827637], [-0.054613202810287476, 0.18664918839931488, -0.5364307761192322, -0.1563693732023239, -0.16543035209178925, 0.38638824224472046, 0.11456317454576492, 0.14744830131530762, -0.023915596306324005, -0.17149659991264343, 0.006253487896174192, -0.4031928479671478, -1.1171507835388184, 0.3147251307964325, -0.23465320467948914, 0.3409280776977539], [-0.11726627498865128, 0.6474674940109253, -0.24042169749736786, 0.07571141421794891, -0.7621214985847473, -0.36524316668510437, -0.0797942578792572, -0.1487559974193573, 0.0037556528113782406, 0.28401175141334534, -0.9040098190307617, -0.25186416506767273, -0.8645771741867065, -0.12292566895484924, 0.05060739815235138, -0.6445194482803345]], "1_weights": [[-0.3970087170600891, 0.029548801481723785, -0.31287071108818054, 0.07791221141815186, -0.1354013830423355, 0.18583910167217255, 0.15755337476730347, -0.3627665638923645, 0.020369812846183777, -0.23211409151554108, 0.201946422457695, -0.15643997490406036, -0.3320143222808838, -0.1737167239189148, -0.05384155362844467, -0.30890268087387085], [0.33926644921302795, 0.00806969404220581, 0.14399559795856476, 0.34833574295043945, -0.15551476180553436, -0.08976238965988159, -0.3526938855648041, 0.40129196643829346, -0.1583259105682373, -0.03279474005103111, -0.2612643837928772, -0.24043938517570496, 0.43318629264831543, 0.20238636434078217, -0.005689266603440046, 0.24946776032447815], [-0.019429892301559448, 0.8498187065124512, 0.264392614364624, -0.34351950883865356, 0.6222029328346252, 0.6697822213172913, 0.866934597492218, -0.35212481021881104, -0.1999979466199875, -0.3054182231426239, -0.06318634748458862, 0.7233498692512512, -0.07885050028562546, 0.48441919684410095, -0.5281241536140442, -0.4122298061847687], [0.34614983201026917, -0.1557449847459793, -0.2034699022769928, 0.07778683304786682, 0.20436201989650726, -0.1796526163816452, -0.13836592435836792, 0.24559666216373444, 0.36380839347839355, 0.01614421419799328, 0.30495551228523254, 0.24283018708229065, 0.039467282593250275, 0.11700557172298431, -0.12299863249063492, 0.05746582895517349], [0.11436034739017487, -0.11912517249584198, 0.33346840739250183, 0.04105101898312569, 0.3288450241088867, -0.1624671220779419, -0.323526531457901, 0.04463784024119377, -0.19011422991752625, 0.03537469357252121, -0.13138039410114288, 0.24062810838222504, 0.20962361991405487, -0.08356935530900955, -0.4250115752220154, 0.39627453684806824], [-0.047715939581394196, 0.002371658105403185, -0.08187033981084824, 0.19582697749137878, 0.2065715193748474, 0.029857654124498367, 0.06013141945004463, 0.009523590095341206, 0.12304054200649261, 0.11127593368291855, -0.3866423964500427, 0.19624406099319458, -0.002764506498351693, 0.04113464802503586, 0.15696178376674652, 0.3195789158344269], [0.11004652827978134, -0.04969041422009468, 0.1859535276889801, -0.07638561725616455, 0.2499401867389679, -0.042876072227954865, 0.043928347527980804, -0.2142300009727478, 0.3245975971221924, 0.24575918912887573, 0.028244519606232643, 0.28237947821617126, -0.033617451786994934, 0.21235178411006927, -0.24859704077243805, -0.18118880689144135], [0.3317311108112335, -0.054377879947423935, 0.3767879009246826, -0.08807197213172913, -0.2524547874927521, -0.10288180410861969, -0.30959251523017883, 0.3713269829750061, 0.3195688724517822, -0.4622308313846588, -0.0811551883816719, 0.12496808171272278, 0.3885335326194763, -0.32214415073394775, -0.21084041893482208, -0.16260410845279694], [-0.1578087955713272, 0.3853556215763092, 0.19822070002555847, -0.23644264042377472, -0.21608982980251312, 0.02861449122428894, -0.009529169648885727, 0.43635454773902893, -0.38301652669906616, 0.05612417683005333, 0.21982300281524658, -0.08569105714559555, -0.327373206615448, 0.2647070288658142, 0.11660446971654892, 0.3341156542301178], [-0.10553710162639618, 0.3665134608745575, -0.052559737116098404, 0.4375166893005371, 0.016630994156003, -0.1771252304315567, 0.09762998670339584, -0.015510252676904202, 0.05581294372677803, 0.15070490539073944, 0.13475832343101501, 0.18010377883911133, 0.02994147129356861, 0.17326588928699493, -0.007386154495179653, 0.17752790451049805], [-0.062137674540281296, 0.037196144461631775, -0.009150109253823757, -0.1858615130186081, 0.07533275336027145, 0.4299556314945221, 0.11749958992004395, -0.3848341107368469, 0.1594197154045105, -0.24492302536964417, -0.36609235405921936, 0.24580462276935577, 0.30087968707084656, 0.049342747777700424, -0.1556733399629593, -0.15996289253234863], [0.21681761741638184, 0.07865725457668304, 0.09573381394147873, -0.007265460677444935, 0.06212285906076431, 0.11560314148664474, 0.032289665192365646, -0.2471476048231125, -0.10010412335395813, -0.2840438485145569, -0.04779250547289848, -0.40521711111068726, 0.017767593264579773, 0.026088638231158257, -0.1949632465839386, -0.2815968692302704], [-0.34403547644615173, 1.5230125188827515, -0.423709511756897, -0.08759108930826187, 0.8702437877655029, 1.0268014669418335, 1.5854533910751343, -0.3302875757217407, -0.07283411920070648, -0.2557529807090759, -0.02097562700510025, 1.3619906902313232, -0.372298926115036, 0.6892198324203491, 0.10353335738182068, -0.4958009421825409], [0.2451968491077423, 0.13581685721874237, -0.32628583908081055, -0.3538168668746948, 0.3807583153247833, 0.14380760490894318, 0.3935666084289551, 0.12520766258239746, 0.09008204936981201, 0.08377470821142197, -0.3725019693374634, 0.1255936324596405, 0.025373725220561028, -0.06384386122226715, 0.1080474853515625, 0.4152756631374359], [0.2872936725616455, 0.12362056225538254, -0.15406236052513123, 0.14068874716758728, -0.00495485682040453, -0.03364565968513489, 0.011032266542315483, -0.22450311481952667, -0.09406017512083054, -0.05070722848176956, -0.31482845544815063, 0.1942516565322876, 0.350765585899353, 0.18757572770118713, 0.22251001000404358, 0.20564858615398407], [-0.143730029463768, 0.1817619502544403, 0.13072741031646729, 0.2078590989112854, 0.4453768730163574, -0.12126646935939789, 0.08962677419185638, -0.22213643789291382, 0.35142776370048523, 0.039061591029167175, -0.15065504610538483, 0.2717263102531433, -0.006402462720870972, 0.41484323143959045, 0.1983809620141983, 0.02754831314086914]], "2_weights": [[0.26175424456596375, 0.11108928173780441, 0.18172983825206757], [0.4298572540283203, -0.2836930751800537, -0.48589658737182617], [0.3593018651008606, 0.5782721042633057, -0.05575312301516533], [0.1408974826335907, -0.008375479839742184, -0.4273267984390259], [-0.2828328311443329, -0.44123023748397827, -0.41196921467781067], [-0.3773021697998047, -0.40545418858528137, -0.08247179538011551], [-0.6431404948234558, 0.07836230844259262, -0.3348276913166046], [-0.2878878116607666, -0.31685134768486023, -0.15098918974399567], [0.08082829415798187, -0.0006799980765208602, -0.16135288774967194], [0.28133440017700195, 0.24900995194911957, 0.08779503405094147], [0.5437960028648376, 0.14917977154254913, 0.09034267067909241], [-0.1553492248058319, -0.3460158109664917, -0.2443445473909378], [0.134071484208107, 0.25525420904159546, -0.042838163673877716], [-0.4659748077392578, -0.06745672971010208, 0.4557822346687317], [0.2586924433708191, 0.050122879445552826, 0.1003727987408638], [-0.42738503217697144, -0.06860768049955368, 0.2662357687950134]], "0_bias": [-0.05762987583875656, 0.07794337719678879, 0.04614214599132538, -0.10717106610536575, 0.005174598190933466, -0.018535103648900986, -0.06513486057519913, -0.04611704871058464, -0.06906792521476746, -0.05731555446982384, -0.10574326664209366, -0.1083957850933075, -0.07814692705869675, 0.010817838832736015, -0.09032117575407028, 0.030730562284588814], "1_bias": [0.06466377526521683, 0.0425402857363224, 0.007465435191988945, 0.13104216754436493, 0.0925552174448967, 0.17742738127708435, 0.17736506462097168, -0.03930208086967468, 0.04659781605005264, -0.1744198203086853, -0.032926809042692184, 0.14286088943481445, 0.008917496539652348, 0.04667392745614052, 0.0067739724181592464, -0.10212863981723785], "2_bias": [-0.12404629588127136, -0.18211163580417633, -0.12101235240697861], "format": "png"}