{"voxel_size": 0.0033793874999999995, "block_size": 30, "grid_width": 1000, "grid_height": 1000, "grid_depth": 1000, "atlas_width": 2048, "atlas_height": 2048, "atlas_depth": 32, "num_slices": 8, "min_x": -1.69394375, "min_y": -1.69394375, "min_z": -1.69394375, "atlas_blocks_x": 64, "atlas_blocks_y": 64, "atlas_blocks_z": 1, "input_height": 800.0, "input_width": 800.0, "input_focal": 1111.1110311937682, "worldspace_T_opengl": [[-1.0, 0.0, 0.0, 0.0], [0.0, 0.0, 1.0, 0.0], [0.0, 1.0, 0.0, 0.0], [0.0, 0.0, 0.0, 1.0]], "ndc": false, "0_weights": [[0.32628002762794495, 0.11893193423748016, -0.27385467290878296, -0.04558805376291275, -0.2553095519542694, -0.12084028124809265, -0.1480630487203598, 0.04554324969649315, -0.05989299714565277, 0.09220921993255615, 0.07732637226581573, -0.18189001083374023, 0.050986312329769135, -0.016446305438876152, 0.2042168527841568, -0.20443123579025269], [-0.1646134853363037, 0.3044164776802063, -0.2339426726102829, 0.06603654474020004, -0.19674943387508392, -0.26873332262039185, -0.15170246362686157, 0.1253305822610855, 0.20154985785484314, -0.1588558405637741, -0.08174477517604828, 0.02579522505402565, -0.019613347947597504, 0.07341716438531876, 0.0967884436249733, 0.2508346140384674], [0.39845550060272217, -0.21489456295967102, 0.07659681141376495, 0.41847479343414307, -0.003761602332815528, 0.25910159945487976, 0.3528421223163605, -0.04248640313744545, -0.33704981207847595, 0.3622574210166931, 0.0018794285133481026, 0.24165156483650208, -0.2322368025779724, -0.38138145208358765, 0.13501550257205963, -0.1381794512271881], [0.2660461664199829, -0.11285831779241562, -0.040409840643405914, 0.0450645349919796, -0.2925380766391754, 0.18468055129051208, 0.35188087821006775, 0.19858746230602264, 0.24738870561122894, 0.05095841363072395, -0.2529065012931824, -0.2609882056713104, -0.1838952749967575, 0.03248244524002075, -0.21506017446517944, -0.026513153687119484], [-0.09812440723180771, -0.20126807689666748, 0.06384910643100739, 0.347627192735672, 0.19015288352966309, -0.25265833735466003, 0.18749861419200897, 0.18333297967910767, -0.1735740453004837, 0.2234947830438614, 0.11919120699167252, -0.06661636382341385, -0.3071203827857971, -0.24177421629428864, 0.2669895887374878, -0.28225356340408325], [0.1614549309015274, -0.18636831641197205, 0.11232645064592361, -0.2361249476671219, -0.1468944251537323, 0.021836988627910614, -0.2465561181306839, -0.10746490210294724, 0.11985968798398972, -0.20566895604133606, -0.25842154026031494, 0.1145264133810997, 0.2998645603656769, -0.03943489119410515, -0.1509561538696289, -0.08941126614809036], [-0.24430939555168152, 0.18361106514930725, 0.250734806060791, 0.21255454421043396, 0.11651700735092163, 0.17226850986480713, -0.11706554889678955, 0.11079875379800797, -0.09758538752794266, -0.34596437215805054, 0.1463509202003479, -0.23623794317245483, -0.048378437757492065, 0.06574120372533798, -0.03732277825474739, 0.1994202733039856], [0.0699126347899437, 0.17242296040058136, 0.13943426311016083, -0.2222917377948761, -0.03739346191287041, 0.358521044254303, -0.23549148440361023, -0.028659000992774963, -0.23733164370059967, -0.1581593006849289, 0.056989651173353195, 0.24882102012634277, 0.036905258893966675, 0.19205062091350555, -0.1481352597475052, 0.03508652374148369], [-0.2142142653465271, -0.0424344502389431, 0.21360348165035248, 0.35152214765548706, 0.11130565404891968, 0.07711206376552582, -0.0007545669213868678, 0.08819984644651413, -0.320578396320343, 0.20913292467594147, -0.1890185922384262, 0.19798941910266876, 0.11058682948350906, 0.16946852207183838, 0.006997331045567989, 0.0687144547700882], [-0.3029400408267975, -0.15051685273647308, -0.06203652173280716, -0.2479407638311386, 0.18663044273853302, 0.15714745223522186, -0.14330844581127167, 0.05943569540977478, 0.1077556163072586, -0.06481614708900452, -0.039992474019527435, 0.09024633467197418, 0.13547945022583008, -0.060019347816705704, 0.18926465511322021, -0.06475476175546646], [-0.22098509967327118, -0.18757778406143188, -0.05860200896859169, -0.20748116075992584, 0.006500668823719025, 0.08083228021860123, -0.07386229187250137, -0.05910897254943848, 0.1823059767484665, -0.03576396405696869, -0.07132480293512344, -0.16509394347667694, 0.09064178913831711, -0.05052829161286354, -0.006498449482023716, -0.027811706066131592], [0.05353821441531181, -0.0005969667690806091, -0.1317570060491562, -0.019032267853617668, -0.1727321892976761, -0.2675345838069916, 0.11006612330675125, 0.2617076635360718, -0.21162539720535278, 0.3374117612838745, 0.026547156274318695, 0.2753153145313263, 0.05982249975204468, 0.0613434799015522, 0.19306467473506927, 0.08037254959344864], [-0.2551547586917877, -0.069236621260643, 0.008696363307535648, 0.18287084996700287, 0.08081649988889694, -0.036857981234788895, -0.25682899355888367, 0.0073324949480593204, -0.07458976656198502, -0.04563797637820244, -0.025717496871948242, 0.1464734673500061, 0.24706847965717316, -0.002816111547872424, 0.10931198298931122, -3.688621654873714e-05], [-0.17618298530578613, 0.072385273873806, 0.02364100143313408, 0.19565773010253906, 0.0302538201212883, -0.1131843850016594, -0.01384273637086153, -0.14699463546276093, -0.09654383361339569, 0.09167543053627014, 0.021803339943289757, 0.048521071672439575, -0.05344802886247635, 0.014613095670938492, -0.07823403924703598, 0.0019153393805027008], [-0.2774355113506317, -0.07520179450511932, -0.03334375470876694, -0.10899312049150467, 0.23071198165416718, -0.1908762902021408, 0.15009421110153198, 0.28023192286491394, -0.15378907322883606, -0.21437257528305054, -0.008034036494791508, -0.1881745457649231, 0.0081801051273942, -0.011950695887207985, 0.11209945380687714, 0.008346901275217533], [0.16313070058822632, 0.3275987207889557, 0.23405644297599792, -0.3636753559112549, -0.3366018831729889, 0.25282958149909973, 0.10257153958082199, -0.19139356911182404, -0.16218586266040802, -0.19321976602077484, 0.23827879130840302, -0.19214557111263275, -0.2295391708612442, 0.3275657296180725, -0.41997116804122925, -0.35024377703666687], [-0.35264667868614197, -0.04201700910925865, 0.22679969668388367, -0.2443578988313675, -0.07861045002937317, -0.046155091375112534, 0.16103112697601318, -0.24984128773212433, -0.1795261800289154, -0.3394506573677063, 0.08889001607894897, 0.20638681948184967, -0.3032926619052887, 0.3454930782318115, -0.022859569638967514, -0.2055206447839737], [-0.2867196798324585, -0.10797930508852005, -0.31936901807785034, 0.19814656674861908, -0.28202950954437256, 0.13203954696655273, -0.13610316812992096, -0.21714366972446442, -0.24674618244171143, 0.1794891655445099, 0.3166715204715729, -0.10010521858930588, 0.20324577391147614, -0.127033531665802, -0.08725468814373016, -0.4371283948421478], [0.015780646353960037, 0.148703932762146, -0.26744627952575684, 0.06408841162919998, 0.08009593933820724, 0.06991197913885117, -0.31419575214385986, -0.1022723987698555, -0.3237640857696533, 0.26757359504699707, -0.07075151056051254, -0.09334824234247208, 0.008119901642203331, -0.2698758542537689, -0.1490163952112198, 0.06893731653690338], [-0.19431345164775848, 0.33602800965309143, 0.17809247970581055, -0.305534303188324, 0.30174851417541504, -0.12106230854988098, -0.15178652107715607, 0.08881804347038269, 0.10781640559434891, 0.07241126894950867, -0.1223478615283966, -0.1261112093925476, 0.1680670976638794, -0.2378007173538208, -0.41388604044914246, 0.16416972875595093], [-0.2027132362127304, 0.47473418712615967, -0.0545988492667675, -0.08227328211069107, -0.08886931836605072, -0.3423474431037903, -0.16976769268512726, -0.2839619815349579, -0.13736416399478912, 0.12427147477865219, 0.16003592312335968, 0.21040962636470795, -0.07524530589580536, -0.09715217351913452, 0.3692222833633423, 0.1526288092136383], [0.1145320013165474, -0.24566246569156647, 0.11061949282884598, -0.004515765234827995, 0.10343662649393082, 0.1175089105963707, 0.10207530856132507, 0.2175760716199875, 0.37718212604522705, -0.20450061559677124, 0.02239307388663292, 0.05969924107193947, -0.05099816247820854, -0.16408637166023254, 0.20577740669250488, -0.08293002843856812], [-0.21354210376739502, -0.06058942526578903, -0.09035266935825348, 0.3634733557701111, -0.16073882579803467, -0.048878058791160583, -0.1500505805015564, -0.1717994213104248, -0.15378770232200623, 0.017373517155647278, 0.10618756711483002, -0.23611029982566833, 0.09995677322149277, -0.09698017686605453, 0.17892371118068695, -0.1506323218345642], [0.30014774203300476, -0.1125265508890152, -0.14078380167484283, -0.2494279444217682, 0.17812933027744293, -0.021361319348216057, 0.2673444449901581, 0.2668634057044983, -0.02062823995947838, 0.26036903262138367, 0.0022123942617326975, -0.3589399755001068, 0.23850739002227783, 0.05527197942137718, -0.22005310654640198, 0.01267947070300579], [0.12733885645866394, -0.012729063630104065, -0.00974738597869873, -0.18045029044151306, 0.059313733130693436, -0.02170208841562271, 0.016164293512701988, -0.13935929536819458, -0.1322111338376999, 0.00497928261756897, -0.0368676520884037, 0.09005498141050339, -0.10179773718118668, 0.04276680201292038, 0.04331652820110321, 0.004991411231458187], [-0.12201925367116928, 0.024216018617153168, 0.01735491305589676, -0.21177278459072113, 0.02085987851023674, -0.08637610822916031, 0.008772222325205803, -0.1748729795217514, 0.025029167532920837, -0.006436539348214865, -0.04533790796995163, -0.17109723389148712, 0.03113904967904091, 0.06686250865459442, -0.2300107628107071, 0.022715922445058823], [-0.1021893247961998, -0.07111985236406326, 0.008342158049345016, 0.2295958697795868, -0.1649206131696701, -0.18903562426567078, -0.24307391047477722, -0.08986391127109528, 0.0004532536549959332, -0.16991446912288666, -0.021941013634204865, -0.03355126827955246, -0.15727584064006805, -0.02450411207973957, 0.037922453135252, -0.04609378054738045], [-0.2364860475063324, -0.14059998095035553, 0.5414303541183472, 0.10107983648777008, -0.3423139750957489, -0.32239851355552673, -0.6641381978988647, -0.24484212696552277, 0.012136770412325859, -0.05414719134569168, 0.7395604252815247, -0.034866154193878174, 0.06405691057443619, 0.8253612518310547, 0.16026580333709717, 0.4665355682373047], [-0.08925016969442368, -0.10371539741754532, 0.2796076238155365, -0.3967297375202179, -0.2325318604707718, -0.12829042971134186, -0.12991252541542053, -0.1462920755147934, 0.08054205775260925, 0.025651849806308746, 0.7045411467552185, -0.01210111752152443, -0.3522205650806427, 0.3750782907009125, -0.22817359864711761, 0.5725457668304443], [-0.31544405221939087, -0.2245730310678482, 0.16013608872890472, 0.0246457327157259, -0.11434979736804962, -0.11896707862615585, -0.5871909856796265, 0.07672324776649475, 0.27421966195106506, -0.1254866123199463, 0.35798436403274536, -0.15165835618972778, 0.12627747654914856, 0.6829119324684143, -0.1788705289363861, 0.22934401035308838], [-0.2902403473854065, 0.11712503433227539, -0.6659208536148071, 0.1422473043203354, -0.46984443068504333, 0.07185890525579453, -0.10576966404914856, 0.2007959485054016, 0.3450816571712494, -0.28024718165397644, -0.37591665983200073, -0.06439650803804398, -0.012946700677275658, -0.507663905620575, 0.19586701691150665, -1.2690871953964233], [-0.45369935035705566, -0.34252452850341797, -0.13658134639263153, -0.10736417025327682, 0.28342583775520325, -0.15066996216773987, 0.02442278526723385, -0.12427540868520737, -0.4288144111633301, -0.03707197681069374, -0.5025587677955627, -0.07746422290802002, -0.007107002194970846, -0.14987167716026306, 0.1611880213022232, -0.4119890630245209], [-0.03797178342938423, 0.24516122043132782, -0.9958426356315613, -0.19780384004116058, -0.7897630929946899, 0.16753588616847992, -0.37658047676086426, 0.13797852396965027, -0.09493488073348999, -0.3003492057323456, -0.364530086517334, -0.41740769147872925, -0.4039946496486664, -0.22593805193901062, -0.28777259588241577, -0.9907882213592529], [-0.19541291892528534, 0.28428974747657776, 0.2107577621936798, 0.04615795612335205, 0.0703868493437767, -0.40405136346817017, 0.28212156891822815, -0.14885841310024261, 0.17897668480873108, 0.44910451769828796, -0.5308017730712891, -0.27143073081970215, 0.36146652698516846, 0.28641781210899353, 0.0813252404332161, -0.2998526990413666]], "1_weights": [[-0.2763850688934326, -0.030247056856751442, -0.2846200466156006, 0.0192624069750309, -0.25091394782066345, -0.053194303065538406, -0.018058110028505325, -0.31273433566093445, -0.06129993125796318, -0.26210862398147583, 0.2212747484445572, -0.2683151364326477, -0.25963494181632996, -0.1323654055595398, -0.13955698907375336, -0.3692472279071808], [0.3275376260280609, -0.05937957763671875, 0.010948959738016129, 0.3892260193824768, -0.1285555064678192, -0.08971086144447327, -0.29885420203208923, 0.4603625237941742, -0.10030906647443771, -0.10088331252336502, -0.28185465931892395, -0.21650156378746033, 0.41290372610092163, 0.3282473683357239, -0.10543143004179001, 0.3413133919239044], [-0.1578522026538849, 0.3388252556324005, -0.049335457384586334, -0.515924334526062, 0.2875351011753082, 0.33068612217903137, 0.5393226146697998, -0.416352778673172, 0.0015825600130483508, 0.029423870146274567, -0.08562182635068893, 0.41681113839149475, -0.32850465178489685, -0.1155334934592247, -0.14862143993377686, 0.15830282866954803], [0.3577633500099182, -0.18149042129516602, -0.19809022545814514, 0.020276086404919624, 0.18793530762195587, -0.20562772452831268, -0.12788693606853485, 0.23112595081329346, 0.361224889755249, 0.012473476119339466, 0.27639442682266235, 0.23043851554393768, 0.051431383937597275, 0.12618976831436157, -0.09715952724218369, 0.08154205977916718], [-0.21511909365653992, -0.140056774020195, 0.3678284287452698, 0.2670661211013794, 0.3487902581691742, -0.1902528554201126, -0.17723698914051056, 0.09418238699436188, -0.09145539253950119, -0.01122842263430357, -0.1202750876545906, 0.24659451842308044, 0.1485193371772766, -0.023036673665046692, -0.3375595211982727, 0.31348079442977905], [-0.04105363413691521, -0.027660395950078964, -0.33913150429725647, 0.09855855256319046, 0.07879264652729034, -0.16575448215007782, -0.13201318681240082, -0.07574113458395004, -0.008927657268941402, 0.2150367945432663, -0.37996166944503784, 0.06336720287799835, -0.06427712738513947, -0.20937474071979523, 0.04462581127882004, 0.3316088616847992], [0.022914784029126167, -0.02406444028019905, 0.20177173614501953, -0.08964639902114868, 0.2471514791250229, -0.339437872171402, 0.030987126752734184, -0.21672049164772034, 0.25785574316978455, 0.15762248635292053, -0.002675163559615612, 0.2897762358188629, 0.02596355602145195, 0.20489929616451263, -0.05633816495537758, -0.018539203330874443], [0.31389254331588745, -0.058476801961660385, 0.3735252618789673, -0.08980731666088104, -0.23527254164218903, -0.016641315072774887, -0.2608863413333893, 0.41228193044662476, 0.30481046438217163, -0.4752636253833771, -0.0811551883816719, 0.14203503727912903, 0.3730473816394806, -0.3228219151496887, -0.22112564742565155, -0.15736477077007294], [-0.14587265253067017, 0.3213297724723816, 0.12569554150104523, -0.19770345091819763, -0.26578289270401, 0.029774827882647514, 0.21904322504997253, 0.25118547677993774, -0.298030823469162, 0.15404324233531952, 0.1895236223936081, -0.14846734702587128, -0.3296830654144287, 0.25757211446762085, 0.16287927329540253, 0.32337966561317444], [-0.005164757836610079, 0.29906654357910156, -0.15704070031642914, 0.2541919946670532, -0.006341652013361454, -0.13111339509487152, 0.06889455020427704, -0.05564131587743759, -0.300106942653656, 0.13970433175563812, 0.09362342953681946, 0.20804129540920258, 0.05463474243879318, 0.2767321467399597, 0.031295377761125565, 0.2612137198448181], [-0.02036414109170437, 0.31331372261047363, 0.051110319793224335, -0.05686574801802635, 0.3426678478717804, 0.843689501285553, 0.44756022095680237, -0.4926915764808655, -0.13425187766551971, -0.5705041885375977, -0.36577749252319336, 0.5012387037277222, 0.1810760349035263, -0.056210316717624664, -0.3996313214302063, -0.3688439726829529], [0.3089785873889923, 0.01022758986800909, 0.08294640481472015, -0.2689328193664551, -0.06826586276292801, 0.03004217892885208, -0.15353739261627197, -0.29847589135169983, -0.1890799105167389, -0.28522393107414246, -0.052208688110113144, -0.5237411856651306, 0.03534921631217003, 0.10322354733943939, -0.0615566223859787, -0.16846826672554016], [0.024010153487324715, 0.4435197114944458, -0.011798492632806301, -0.09466709941625595, -0.2882559299468994, -0.07377558201551437, 0.4242749512195587, -0.16629146039485931, -0.14395712316036224, 0.15041778981685638, -0.055047597736120224, 0.2417067289352417, -0.16039761900901794, 0.37289944291114807, 0.2964569628238678, 0.09195275604724884], [0.2555292546749115, 0.24514450132846832, -0.21513302624225616, -0.30727970600128174, 0.42693063616752625, 0.15876318514347076, 0.449222594499588, 0.24915364384651184, 0.2689118981361389, 0.20010903477668762, -0.37898316979408264, 0.1566324681043625, 0.08061264455318451, -0.16065646708011627, 0.21489614248275757, 0.35776853561401367], [0.289561927318573, 0.08512642234563828, -0.15100419521331787, 0.12122872471809387, 0.01610540598630905, -0.0702599287033081, 0.020123139023780823, -0.08643185347318649, -0.006294842343777418, -0.05304697901010513, -0.29138216376304626, 0.21343523263931274, 0.31946489214897156, 0.20541711151599884, 0.1952088177204132, 0.23685556650161743], [-0.9103520512580872, 0.8857437968254089, 0.18079082667827606, 0.19827298820018768, 1.3387415409088135, 0.841140627861023, 1.011841893196106, -0.33952173590660095, 0.8712002038955688, 0.1477833241224289, -0.16086450219154358, 1.1479250192642212, -0.8312106728553772, 0.15992754697799683, 0.2431773692369461, -0.11711950600147247]], "2_weights": [[0.28959906101226807, 0.09851954132318497, 0.13875655829906464], [0.3442822992801666, -0.3587847054004669, -0.5057401657104492], [0.19331802427768707, 0.5325559377670288, -0.20257188379764557], [0.05359429493546486, -0.0074275704100728035, -0.46377211809158325], [-0.3523249328136444, -0.4848794639110565, -0.4903790354728699], [-0.5037509202957153, -0.44538718461990356, -0.01918177306652069], [-0.6861364245414734, -0.024039050564169884, -0.3886263370513916], [-0.09689876437187195, -0.2721582055091858, -0.19366393983364105], [-0.2323545217514038, -0.34295594692230225, -0.3456405699253082], [0.2139083445072174, 0.23882167041301727, -0.0380190871655941], [0.5053380131721497, 0.12922599911689758, 0.07108242809772491], [-0.20798201858997345, -0.40122392773628235, -0.2852616608142853], [0.18335403501987457, 0.34471169114112854, 0.006957921199500561], [-0.4613628685474396, -0.12825925648212433, 0.46934396028518677], [0.25313207507133484, -0.0014052416663616896, 0.10203591734170914], [-0.3293367326259613, 0.04307086020708084, 0.3525792956352234]], "0_bias": [-0.08993522822856903, 0.13739432394504547, -0.07557327300310135, -0.09885147213935852, -0.07292213290929794, -0.0662592202425003, -0.11976409703493118, -0.04812782257795334, -0.00519165862351656, -0.09772464632987976, 0.021456068381667137, -0.08394918590784073, -0.06125584617257118, 0.040786538273096085, -0.08601262420415878, -0.12601938843727112], "1_bias": [0.057130590081214905, 0.10967174917459488, -0.03512986749410629, 0.1683649867773056, 0.11967196315526962, 0.10622459650039673, 0.2599623501300812, 0.1522570550441742, 0.07331566512584686, -0.07093381136655807, -0.05910602584481239, 0.20492014288902283, 0.060684237629175186, 0.02817011997103691, -0.05145299807190895, -0.07588310539722443], "2_bias": [-0.14735659956932068, -0.24797195196151733, -0.1883675903081894], "format": "png"}